17 50
NOUN -0.318966 0.149639 0.318854 -0.248901 -0.083745 -0.287710 0.073643 -0.174519 0.317708 -0.102467 0.028474 0.050453 -0.093561 0.218853 -0.278699 -0.265671 -0.049876 0.088841 -0.041845 0.077646 0.148327 0.027954 0.152968 -0.080572 0.137247 0.053953 0.060092 -0.257611 0.256274 0.079798 0.159847 0.001110 -0.011939 0.147265 -0.175135 0.165642 0.110542 0.045346 0.062808 0.029469 0.252001 -0.056908 -0.183978 -0.070076 0.149342 0.020213 0.047204 -0.073531 0.058728 0.088738
VERB -0.119091 -0.015787 -0.318413 -0.030165 -0.112071 -0.143766 0.087787 -0.004040 0.169588 -0.278771 0.292048 -0.006991 0.039990 0.249780 -0.499277 -0.064611 0.003438 -0.204468 0.129301 0.111473 0.180828 -0.122386 0.324723 -0.108142 -0.290155 0.060701 -0.140397 -0.372243 0.040713 0.092172 0.070268 0.078165 -0.021927 0.138729 -0.213753 0.122392 0.031630 0.025271 0.113924 -0.025002 -0.072554 0.129733 0.032762 -0.030415 0.257083 -0.267306 0.052082 -0.120925 0.168770 -0.183521
PUNCT -0.070945 -0.170745 -0.128712 -0.016904 -0.160273 -0.233936 0.051787 0.077730 0.214788 -0.116187 0.131367 -0.088943 -0.037473 0.076852 -0.091998 -0.054671 0.083298 0.066759 -0.018599 0.021621 0.051644 0.020830 0.080920 -0.161192 -0.121783 0.069810 0.065065 0.150147 -0.042831 -0.022701 -0.056907 -0.058912 -0.124272 -0.204499 0.062355 0.087321 -0.134804 -0.170780 -0.200951 0.307643 -0.028230 -0.130238 -0.017776 0.200109 -0.016785 0.213572 -0.064802 -0.148302 0.291538 -0.040132
ADP -0.066100 0.069739 -0.021910 -0.130607 0.178793 -0.305075 0.070528 -0.069114 0.310692 -0.046913 0.167202 0.029217 -0.065912 -0.143167 -0.084960 0.176140 -0.038843 -0.054584 0.049541 -0.155483 0.138494 0.033254 0.040278 -0.120485 -0.030288 -0.116316 0.135027 -0.115340 0.030718 0.138394 0.098631 -0.136214 -0.083442 -0.153729 -0.244714 -0.029942 -0.056587 -0.230636 -0.024916 0.156485 0.032571 -0.049423 -0.190161 0.078679 0.061984 0.033049 -0.245622 -0.216818 0.134985 -0.069666
PRON -0.255868 -0.148058 -0.204243 -0.022650 -0.245545 -0.243971 -0.237422 -0.042018 0.019715 0.209213 -0.057037 -0.169513 0.176142 -0.011183 -0.286709 -0.264157 -0.157166 0.149726 0.014685 0.135653 -0.115939 -0.276458 0.256364 -0.024607 0.045440 0.164387 -0.093113 -0.181400 0.001968 0.186251 -0.072717 0.179643 0.039918 -0.204211 -0.224648 -0.176772 -0.019397 0.180740 -0.108474 -0.036632 0.411474 0.070542 0.005255 0.098337 0.305447 0.156308 0.302619 0.110410 0.120911 0.121584
DET 0.085999 -0.411835 -0.044406 0.092782 -0.149752 -0.319620 -0.024858 -0.111352 0.174775 0.088398 -0.068253 -0.276130 0.010232 0.028846 -0.142406 -0.284453 -0.067384 0.065702 -0.004630 0.239137 0.135286 0.031858 0.224136 0.007711 0.188055 -0.208990 0.208412 -0.108338 0.209135 0.025413 0.099563 0.109431 0.082878 0.055929 0.062104 0.345913 0.094953 -0.001266 -0.007967 0.050099 0.078909 -0.182523 -0.040568 0.065316 -0.110659 0.149906 0.003302 0.006829 0.155621 -0.002433
PROPN -0.188967 0.377307 0.077251 0.224353 -0.283146 0.043098 0.039372 -0.090139 0.167076 -0.033615 0.376651 0.066906 0.107363 0.435687 -0.019620 -0.226816 0.104609 0.408852 -0.350810 -0.065654 -0.150102 -0.063518 0.019822 0.078293 0.042634 -0.054902 0.000514 0.005544 0.187097 -0.122813 0.263403 -0.138384 0.190125 0.502110 -0.068095 -0.215644 -0.204258 -0.224296 -0.626104 -0.196010 -0.294729 0.272875 0.173575 0.263481 -0.099148 0.059642 0.364293 -0.207460 0.055685 0.179176
ADJ -0.282995 -0.002179 0.157551 -0.282640 -0.035711 -0.481138 0.052129 -0.223068 0.191252 -0.044533 -0.151221 0.094705 -0.310689 0.099219 -0.130463 -0.129617 -0.082009 0.081305 0.237764 0.029895 -0.006316 -0.197797 0.205212 -0.214308 0.002457 -0.127853 0.055296 -0.184727 -0.072590 0.106913 -0.013650 0.059602 0.045086 -0.117021 -0.042653 0.193866 0.109375 0.036465 0.021414 -0.081090 0.209307 0.131621 0.046995 -0.095544 0.140400 -0.017987 0.009520 -0.135095 0.078560 0.104108
ADV -0.263641 -0.272758 -0.115078 -0.216009 -0.089920 -0.094951 -0.093528 -0.015306 -0.052567 -0.092098 -0.123497 -0.123942 -0.047899 0.248454 -0.339157 -0.130368 0.012641 0.057874 -0.121237 0.126968 0.084991 -0.070095 0.259625 0.104433 -0.109529 0.070200 -0.015418 -0.253989 0.193707 0.072153 0.109164 -0.011798 0.033576 -0.109606 -0.199502 -0.150004 -0.095250 -0.000914 0.072395 0.073825 0.332500 -0.065648 -0.154356 -0.073698 0.367665 0.062091 0.064742 -0.081844 -0.030308 0.036303
AUX -0.054695 -0.246546 -0.331590 0.211034 -0.360671 -0.171631 -0.176025 -0.124625 0.089656 -0.071606 0.036269 -0.012843 0.073144 0.072976 -0.147789 -0.161911 -0.011373 0.000770 0.002066 -0.031988 -0.119929 -0.371059 0.463707 -0.230420 -0.346633 -0.197097 0.048974 -0.182065 -0.140513 0.046199 0.136778 -0.260691 0.266457 -0.364259 -0.364746 -0.024879 -0.059171 -0.187906 -0.141258 0.112739 0.420880 0.138055 -0.298713 0.017349 0.303653 -0.154886 0.111017 -0.322868 0.120360 0.220349
CONJ -0.041268 -0.156120 0.129643 0.080808 -0.047476 -0.105896 -0.018206 0.102372 0.066165 -0.041015 0.082389 -0.055518 0.052307 -0.080948 -0.044743 -0.030929 0.054224 0.083413 -0.060247 -0.047406 0.057802 -0.032898 0.172472 0.101059 -0.104028 -0.188051 0.194916 -0.142242 0.127211 -0.057930 0.094438 -0.243849 -0.096865 -0.216412 -0.055084 0.185939 0.025493 0.055425 0.164125 0.309681 0.186627 -0.082014 -0.271895 0.246293 0.263855 0.051336 -0.264162 -0.171051 0.221924 -0.118725
PART -0.221310 -0.049859 -0.249786 0.141048 -0.006864 -0.080204 -0.131062 0.146912 0.179335 -0.129363 -0.117536 -0.352282 0.400672 -0.218352 -0.230785 -0.040106 -0.137869 0.186703 -0.308101 0.156747 -0.146080 -0.214207 0.349275 0.181359 -0.142291 -0.049480 0.187544 0.051982 0.085216 0.055165 0.173674 -0.057597 0.163625 -0.394139 -0.373193 -0.359229 -0.131148 0.088042 -0.076944 0.039845 0.397898 -0.040801 -0.252317 0.230793 0.415164 0.244109 -0.078273 -0.065845 -0.001558 -0.074120
NUM -0.039720 0.043978 0.059956 -0.053472 -0.221990 -0.231687 -0.173086 -0.135536 0.133559 0.271966 0.294494 0.147783 0.128402 -0.075266 0.044591 -0.277481 0.151092 -0.144099 0.142840 -0.059726 0.281731 0.063530 0.098019 -0.118598 0.066387 0.124898 -0.119030 -0.395912 0.089414 0.009257 -0.083175 -0.112992 0.001903 -0.006588 0.221624 0.395886 0.094558 -0.278745 -0.115350 0.317717 0.101137 -0.236116 -0.384767 -0.024012 -0.340128 -0.185419 0.621625 0.292941 0.162794 0.567708
SCONJ -0.138397 -0.225236 -0.243392 0.150018 -0.081156 -0.139908 -0.114290 0.134596 0.129468 -0.146595 0.039961 -0.207709 0.227084 -0.143120 -0.203044 0.014947 -0.015920 0.067488 -0.144110 0.014801 -0.028781 -0.221114 0.406512 0.041259 -0.314077 -0.159640 0.197088 -0.094263 0.020719 0.015631 0.148467 -0.255416 0.079558 -0.476656 -0.340460 -0.093812 -0.083434 -0.010592 0.042044 0.236560 0.352623 -0.013928 -0.344049 0.252283 0.450808 0.049000 -0.200789 -0.233175 0.178937 -0.096431
X -0.073551 0.947402 0.318879 0.325893 -0.528545 0.770523 0.209432 0.292512 0.274211 -0.693975 -0.075909 0.247338 0.514397 -0.002281 0.299502 -0.303170 0.179417 -0.132893 -0.293399 0.072708 -0.250416 0.096618 -0.153896 -0.863393 -0.363819 1.067809 -0.215495 1.202974 -0.602491 -0.401718 -0.291446 -0.198714 0.177445 -0.470532 0.204629 0.099922 0.079047 -0.027269 -0.401484 0.254634 0.062322 -0.229928 -0.416968 -0.192345 -0.503703 -0.152769 0.493589 0.265350 -0.091443 0.474438
INTJ -0.119402 0.184036 0.098342 0.215519 -0.199294 0.308569 -0.096580 0.079584 -0.053575 -0.295475 0.011333 0.090244 0.246224 0.029609 -0.031712 -0.072596 0.088798 -0.037769 -0.204903 -0.051081 -0.136142 -0.255188 0.370806 -0.072194 -0.395230 -0.059313 0.061736 -0.041268 -0.060887 -0.153168 0.219733 -0.437857 0.290651 -0.285317 -0.282106 -0.063085 0.069333 0.052596 0.130843 0.023746 0.371786 0.159025 -0.476083 -0.056603 0.394949 -0.374472 0.068917 -0.170198 -0.136837 0.209212
SYM 0.130195 0.138019 -0.096602 0.098995 -0.266649 -0.030215 -0.419175 -0.039636 0.092467 0.626480 0.871859 0.346844 0.526329 -0.362210 0.072568 -0.202952 0.181235 -0.353923 0.096633 -0.468088 0.442820 0.156628 -0.063931 -0.120254 0.048288 0.416507 -0.305936 -0.741527 0.175953 0.140007 -0.106153 -0.416131 -0.238570 -0.083853 -0.012051 0.324724 0.136966 -0.390120 -0.008751 0.649551 0.258919 -0.378189 -0.866602 0.059849 -0.326858 -0.430000 0.770408 0.457156 0.253274 0.689804
