38 50
adpmod 0.042833 0.086326 -0.088112 -0.088768 -0.061271 -0.066947 -0.118354 -0.015210 0.104159 -0.079747 0.000048 0.080232 0.028244 0.388483 0.063319 0.110145 -0.127264 0.088674 0.136526 -0.179870 0.084267 -0.379596 0.045601 0.120772 0.024800 0.026937 0.335696 0.151743 -0.042439 0.115488 0.086093 -0.191740 -0.230806 0.215307 0.115410 0.123853 -0.151953 -0.005953 -0.086664 0.063667 -0.045431 -0.357298 0.120509 -0.061760 0.022119 0.183624 0.180257 -0.230376 0.034797 0.116058
adpobj 0.140072 -0.316855 0.020696 0.173923 -0.060323 0.203926 -0.177968 0.114199 0.063027 0.068002 -0.028286 0.077731 0.197005 0.000523 0.048513 -0.015982 -0.106277 -0.012021 0.142113 -0.027770 -0.148950 -0.090364 0.043227 -0.082284 -0.096570 0.078830 -0.140139 0.098696 0.091542 0.114844 -0.320617 -0.013397 -0.160683 0.151852 0.139861 -0.192888 0.025515 -0.147606 -0.480679 -0.323327 -0.145409 -0.006572 0.220171 -0.233790 0.109979 0.104394 0.133976 0.018042 0.162417 0.260605
p -0.073876 -0.081040 0.147215 0.021216 -0.031915 0.013538 -0.113514 -0.063761 0.065459 0.003418 -0.196749 -0.254092 0.059481 0.125516 -0.074203 0.218424 -0.235670 -0.073142 0.066960 0.034517 -0.179136 -0.021587 -0.033578 0.070827 0.011389 0.059134 0.003077 -0.116224 -0.079958 0.064290 0.006240 0.082034 -0.210080 0.242496 -0.126771 0.165544 0.084743 0.022504 -0.096677 -0.141240 -0.063675 -0.209466 0.119408 -0.004851 0.082661 0.059692 -0.027261 -0.278298 0.109818 -0.109564
det -0.106369 -0.085552 -0.052270 -0.037386 0.034910 -0.181315 -0.130004 -0.256282 -0.170849 -0.289406 0.086133 -0.147647 -0.027086 -0.296492 0.195745 0.245191 -0.003674 0.177816 -0.189962 0.045910 -0.090310 0.000675 0.199420 -0.049333 -0.122390 0.168983 -0.191354 0.045457 -0.216280 0.133206 -0.030338 -0.075480 0.040307 0.201537 0.158735 -0.139838 -0.092647 0.137568 0.008951 0.242804 -0.250304 -0.088364 0.085412 0.044902 0.096724 0.019471 0.076778 -0.100020 0.259835 -0.047598
amod -0.141509 -0.181876 -0.099377 0.044001 0.027529 -0.035737 -0.122241 0.121671 0.167689 -0.116089 0.017933 0.193876 0.076074 0.051132 -0.029736 0.218934 -0.112305 0.063065 0.146326 -0.242574 -0.065280 -0.188526 0.150011 -0.073539 -0.100980 0.210324 -0.111928 0.137351 -0.034051 0.333527 0.018729 -0.039366 -0.202811 0.141659 0.230412 0.001012 0.098913 -0.074488 -0.097850 -0.034860 0.003396 -0.045028 0.093020 0.005404 -0.073978 -0.062842 -0.055131 0.080957 -0.167298 0.168883
nsubj 0.146064 0.494700 0.033123 -0.001102 0.447230 -0.229887 0.117049 0.297458 0.156588 0.447376 -0.486214 -0.081710 -0.019825 0.158584 -0.125172 0.060376 0.200158 -0.025488 -0.156031 -0.131135 -0.196439 0.293615 0.095516 -0.059089 -0.112598 0.218457 -0.047971 -0.061021 -0.277757 -0.124880 -0.210236 0.120197 -0.112594 0.267582 0.100534 0.089599 -0.111220 -0.058736 0.007846 0.069275 0.115914 0.312830 -0.093965 -0.195214 -0.273022 -0.026584 0.232549 -0.005949 -0.027330 0.072140
ROOT 0.030597 0.148437 -0.028297 -0.320323 -0.363672 -0.060729 0.027418 0.324039 -0.276060 0.393230 0.019202 -0.079892 -0.442634 -0.330226 0.258476 -0.152764 -0.079834 -0.210018 0.233754 0.245450 0.165429 0.016191 -0.433788 -0.151070 -0.195072 -0.192821 0.250123 0.276277 0.301584 0.225907 0.105303 0.238622 -0.153164 0.377749 0.119117 0.027696 -0.007252 0.108429 -0.053513 0.033551 -0.466630 -0.190175 0.109191 -0.084428 -0.240338 -0.358906 -0.208429 0.125722 0.013121 -0.096796
dobj 0.013939 -0.166707 0.042099 0.229767 0.251636 -0.118766 0.032522 -0.126430 0.291682 0.087443 -0.346263 -0.291999 0.006016 0.075980 -0.242455 -0.009325 -0.016598 0.134704 -0.140780 -0.268301 -0.124738 0.023890 -0.269969 -0.144886 0.089194 0.000595 0.284887 0.080162 0.059874 -0.321516 -0.056749 -0.010099 0.290235 0.002400 0.248324 -0.150681 0.114084 -0.248286 0.124149 -0.032943 -0.545811 0.140069 -0.240811 -0.061141 -0.142882 0.101875 0.329148 0.277288 -0.091780 0.003054
conj -0.118093 -0.326432 -0.215539 -0.009451 -0.007010 0.315461 -0.268164 0.231132 -0.324100 0.457845 -0.267648 0.207445 0.450464 0.141497 -0.478872 -0.093935 -0.133595 0.230150 0.172161 0.016662 0.068922 -0.022865 -0.163856 0.203054 0.229786 -0.222749 -0.305531 -0.042259 -0.110283 0.192613 0.232905 -0.166214 0.205923 0.270425 0.194724 -0.094301 -0.412403 0.206921 -0.050975 0.358751 -0.199489 -0.128376 0.027350 -0.334409 -0.129652 -0.166498 -0.173191 0.139075 -0.010018 -0.130088
cc -0.032264 -0.293492 -0.157459 -0.299969 0.280182 0.163643 0.157611 -0.489865 -0.076133 -0.341772 -0.301849 -0.174322 0.112903 0.282639 -0.158500 0.290901 -0.300578 -0.151190 0.179170 -0.332552 0.122458 0.466739 -0.123693 -0.322098 0.098506 -0.392509 0.152582 -0.239828 0.163685 0.137436 -0.238259 -0.061067 -0.261458 0.611886 -0.016574 0.156793 -0.116432 0.246072 0.023052 -0.326393 -0.081579 -0.009975 0.047841 -0.227537 -0.090789 -0.268334 -0.219330 0.140657 -0.303928 0.101313
advmod -0.033426 -0.154061 -0.021861 0.153598 0.024340 0.046869 0.204093 0.012628 0.136517 0.164604 -0.116292 0.085588 -0.137602 -0.102582 -0.066789 0.107721 0.046452 0.168934 -0.258593 -0.116200 0.071001 0.014702 -0.100615 -0.204519 0.225196 -0.067250 0.012723 0.030920 -0.099640 0.101076 -0.024014 -0.105328 -0.201406 0.213182 0.237211 -0.060036 0.009009 -0.036177 0.226996 0.003870 -0.026408 0.260695 0.054932 -0.123153 0.033021 0.070977 -0.110458 -0.206137 0.219870 -0.031908
compmod -0.095276 -0.295025 0.232919 0.170478 0.294822 -0.223703 0.102710 -0.152762 0.287656 0.146743 -0.142706 0.111910 0.375483 -0.083223 0.095000 0.078860 -0.153071 -0.020471 0.289733 -0.066744 0.063178 0.113695 0.404034 -0.051179 -0.082772 0.020156 -0.284829 -0.135279 0.020079 0.134649 0.319396 -0.143784 -0.113083 -0.297027 -0.253164 0.191777 -0.048178 0.274635 -0.351624 -0.104842 0.048602 -0.319149 0.224750 0.067100 0.110598 -0.278270 -0.200308 -0.002417 0.060283 0.049386
appos 0.264637 -0.294539 -0.066313 0.024379 0.107471 -0.235487 -0.060196 -0.210452 0.168517 0.307282 -0.271607 0.145449 0.380553 -0.015572 0.313523 -0.069325 0.081236 0.072738 0.312986 -0.124939 0.383974 0.162676 0.301759 -0.364751 -0.083772 -0.130050 -0.288998 -0.077945 0.064394 0.367045 0.054164 -0.212280 0.029005 -0.340371 -0.141372 0.014006 -0.184411 0.353979 -0.404901 -0.306817 0.366024 -0.109571 0.189759 -0.269195 -0.090326 0.034913 0.096113 0.021043 0.053989 -0.230803
num 0.087311 -0.140480 0.369696 0.508411 0.291986 -0.040822 0.145363 -0.219187 -0.155065 0.070436 -0.009997 0.284338 0.273336 0.111614 -0.001343 -0.284504 -0.020081 0.265530 -0.273140 0.136561 0.348203 -0.174717 -0.069667 -0.134672 0.132157 0.087273 0.008289 0.093787 0.269353 -0.196279 0.136828 -0.376476 -0.380406 0.543158 -0.148283 0.125018 -0.074568 0.014301 -0.213793 -0.057565 -0.115386 -0.067581 0.360204 0.374060 0.300291 -0.361998 0.091484 -0.301669 0.429721 0.197926
mark 0.242750 0.424349 -0.131036 -0.188287 0.323142 -0.225636 -0.003173 0.084520 -0.290680 -0.169681 -0.229184 -0.181269 -0.138428 -0.550749 0.265239 -0.132283 -0.364043 0.028924 -0.376816 0.193732 -0.031930 0.011001 -0.191891 -0.245020 0.326923 -0.190357 -0.234928 -0.234652 0.046700 -0.058405 -0.051684 -0.323871 -0.410099 -0.030080 0.454891 0.322038 -0.064632 -0.635606 0.454687 0.385460 -0.604270 0.305509 -0.265972 0.135821 0.200507 -0.296235 0.108891 -0.087337 -0.193523 0.166803
rcmod -0.279098 -0.111268 -0.042828 -0.160995 -0.024061 -0.188742 -0.002807 0.208975 -0.457324 0.165031 0.331780 -0.083241 -0.426004 -0.449000 0.228990 -0.018630 -0.052704 -0.166402 0.125210 0.063623 0.072928 0.070722 -0.301080 -0.133000 -0.168682 -0.039302 0.152668 0.274245 0.188465 0.267151 0.162793 -0.011962 -0.167368 0.367744 0.331599 0.033912 -0.051675 0.043506 0.147487 0.266828 -0.369326 -0.258456 0.188289 0.178069 -0.190586 -0.450207 -0.111828 0.001527 -0.114272 0.044781
aux -0.196527 0.036790 -0.016744 0.021299 0.106563 -0.100484 0.288398 -0.172092 -0.150766 -0.068379 0.086770 0.082958 -0.267998 -0.123260 -0.316146 0.071016 0.297891 0.196076 -0.560282 -0.214866 0.172696 0.222248 -0.085785 -0.175202 0.013973 0.094485 -0.189409 0.001992 -0.176529 0.024610 0.047630 -0.302641 -0.176400 0.214589 0.162075 -0.091421 -0.076735 -0.110572 0.571386 0.164582 -0.175437 0.370808 -0.214139 0.084854 0.074464 -0.052877 -0.261222 -0.027082 0.095878 0.088805
partmod 0.083515 0.025201 -0.091134 0.000809 -0.017219 0.102396 -0.183667 0.268547 -0.091956 0.004452 0.022945 0.277578 0.140964 0.052949 0.122020 0.106587 -0.058113 0.070866 0.200725 -0.060450 0.060707 -0.193365 0.033952 -0.079305 -0.216528 0.186028 0.033086 0.210589 0.123747 0.269135 -0.230635 -0.028331 -0.129188 0.433992 0.027998 0.060680 -0.056987 0.057808 -0.250131 -0.068868 0.113109 -0.132702 0.148729 0.074356 -0.152482 -0.276774 0.149969 0.101880 -0.195918 0.121608
auxpass -1.149091 0.484081 -0.646211 -0.056519 0.429004 0.008927 0.205418 0.021665 -0.063560 0.028104 -0.416860 -0.003810 -0.062029 0.191792 -0.392296 -0.436341 0.310255 0.755286 -0.387149 -0.206619 0.079261 0.318052 0.169358 -0.326143 0.362856 0.311859 -0.241446 0.352593 -0.091761 -0.519951 0.196870 0.257786 -0.006824 0.110724 -0.145624 0.094477 0.378631 -0.056320 -0.182259 -0.091122 -0.557568 0.038363 -0.206387 -0.010064 0.614815 0.139704 0.043781 0.223802 0.090874 0.044885
advcl 0.551703 0.670357 0.266114 -0.369101 -0.482278 -0.027264 0.010790 0.084460 -0.060955 -0.016211 -0.289747 0.285821 -0.049604 -0.046088 0.008327 0.181093 0.119283 0.144292 -0.291087 0.210050 0.245537 -0.039262 -0.209210 -0.060235 -0.393678 -0.281449 0.125149 0.103893 -0.042771 0.027451 -0.346421 0.113093 0.136011 0.768656 -0.059062 -0.001573 -0.156400 0.238752 0.170299 0.158133 -0.238498 0.409735 -0.241058 0.066749 -0.144373 -0.363519 -0.453798 0.397190 0.255512 0.174454
ccomp 0.015794 0.209892 0.148068 -0.169172 -0.264640 -0.106102 0.064672 0.204680 0.000770 0.224671 -0.147337 -0.166648 -0.419772 -0.256321 -0.082592 0.181038 0.201424 0.027603 -0.158396 -0.078492 -0.021842 0.099647 -0.339042 -0.042404 -0.242088 -0.129778 0.167048 0.283678 -0.058579 0.040630 -0.012686 0.151897 0.180814 0.651161 0.387461 -0.136642 -0.108861 0.140890 0.364651 0.148566 -0.310430 0.153727 -0.067827 0.007001 -0.387758 -0.182215 -0.271207 0.149662 0.162951 -0.003110
attr -0.046416 -0.079080 -0.116854 0.038161 0.065921 -0.212354 -0.269129 -0.076063 0.088224 -0.104446 -0.151932 -0.480770 -0.180314 0.000730 -0.048111 0.197383 0.120300 0.023948 -0.227040 -0.241513 -0.200628 0.048932 -0.169598 -0.219910 -0.037476 0.308584 0.046150 0.017830 -0.184088 -0.006323 -0.263806 0.061537 0.071689 -0.108745 0.254574 -0.172803 0.254890 -0.379315 0.156623 -0.111532 -0.134752 0.229278 -0.238779 -0.124145 -0.174369 0.457719 0.500123 0.031036 -0.113326 -0.293720
adpcomp -0.160416 -0.101178 0.058557 -0.018963 0.237572 0.117633 0.076039 0.425269 -0.103825 0.068559 0.128668 0.079987 -0.114487 -0.180450 -0.161073 0.272751 -0.060345 -0.160071 0.090464 -0.234585 -0.303137 0.155833 -0.120342 -0.058167 -0.314591 0.201893 -0.016656 0.185919 -0.014258 0.274029 -0.404205 0.027768 -0.289644 0.540146 0.361335 -0.140042 -0.069090 -0.163146 -0.119959 0.011135 -0.251888 0.117468 0.104861 -0.102422 -0.247706 -0.382385 -0.067688 0.227231 -0.242037 0.484819
nsubjpass 0.158455 0.661081 0.250764 -0.267317 -0.350089 -0.336664 -0.162429 -0.079416 0.035047 0.097896 -0.119657 0.079853 -0.203702 0.429057 -0.387584 -0.622751 0.626982 -0.084264 -0.462860 -0.280038 0.282992 -0.053458 -0.000523 0.104380 -0.433031 -0.037047 -0.437680 0.071406 0.087530 -0.512922 0.087944 -0.576275 -0.520008 -0.076928 0.129973 0.205192 -0.250405 -0.770387 0.149362 -0.642900 -0.248667 0.096268 -0.314194 -0.150470 0.154583 0.424920 -0.237435 0.063516 0.238018 0.580207
adp -0.185399 0.032132 0.242116 0.201904 0.352053 -0.365773 -0.143783 -0.422117 -0.345070 0.300722 -0.323126 -0.344404 -0.220658 0.041695 -0.227235 -0.444585 0.427917 -0.006741 -0.475314 -0.148100 0.153943 0.412934 -0.230543 -0.173736 -0.225151 -0.166564 -0.226789 0.101708 0.187012 -0.651722 0.328215 -0.327338 -0.068807 0.543836 0.312020 0.144484 -0.220315 -0.089679 0.185004 -0.434968 -0.355440 -0.081987 0.153441 0.035459 -0.209472 -0.205085 -0.023064 -0.064158 0.372273 0.105567
poss -0.072039 0.017086 -0.110709 -0.082285 0.116914 -0.054572 -0.168102 -0.018500 -0.042388 -0.293451 -0.066126 0.024146 0.129602 -0.081458 -0.045906 0.304758 -0.119155 0.202925 -0.039936 -0.164034 -0.071382 -0.091008 0.102161 -0.019590 -0.120091 0.160264 -0.164454 0.070048 -0.156337 0.227447 -0.098314 -0.119705 0.031128 0.301359 0.243569 -0.038500 -0.079208 -0.029131 0.028026 0.206143 -0.230456 0.008643 -0.053576 0.086423 -0.028656 -0.159399 0.019167 0.140430 -0.105089 0.175887
acomp -0.111585 -0.097257 0.050486 0.546541 0.229055 0.047590 -0.121922 0.105685 0.336994 -0.114879 -0.526371 -0.235645 0.025123 -0.349305 -0.169231 0.295511 0.001684 0.463158 -0.348725 -0.299452 -0.053323 -0.075967 -0.285407 -0.390301 0.257521 0.227951 -0.273172 0.089920 0.017490 0.150929 0.118412 -0.121089 0.257937 0.414902 0.352334 0.000751 0.378013 -0.232220 0.419133 -0.043786 -0.178201 0.328892 -0.177912 0.447483 -0.143495 -0.135347 0.259600 -0.003088 -0.095349 -0.438895
neg -0.022835 0.079943 0.003212 -0.045371 0.117700 -0.167059 0.023269 -0.070035 0.005864 -0.101235 -0.218327 -0.161473 -0.165709 -0.287744 -0.144313 0.165052 0.150199 0.148958 -0.366236 -0.235426 0.021407 0.191202 -0.115608 -0.171148 0.035005 -0.073561 -0.296662 -0.014135 -0.164599 0.056084 0.094868 -0.229141 0.105083 0.273689 0.462918 -0.060382 -0.112363 -0.118987 0.481643 0.198638 -0.213461 0.332030 -0.208671 0.079508 -0.150686 -0.078992 -0.131685 0.085307 0.020700 -0.004387
nmod 0.354262 -0.105803 -0.073788 0.347201 0.135707 -0.108922 -0.209718 0.042003 0.190533 0.290320 -0.582185 0.356787 0.396708 0.083604 0.089037 -0.254164 -0.018766 0.396936 -0.059739 -0.191895 0.596236 -0.242249 -0.126016 -0.578065 0.208812 -0.077876 -0.260669 0.055864 0.317177 0.221105 0.098868 -0.451292 -0.152408 0.112615 0.079669 0.275664 0.077252 -0.171626 -0.060683 -0.361209 0.169907 0.205098 0.008264 0.181672 -0.028242 -0.249899 0.192767 0.033094 -0.165630 -0.160416
mwe 0.506344 0.780215 -0.009571 -0.187174 -0.508219 0.281242 -0.158124 0.126928 0.060501 -0.421910 -0.480229 0.386489 0.373256 -0.124514 0.157486 -0.024361 -0.327685 0.623559 -0.306036 0.384536 0.134711 -0.566125 -0.142647 -0.118261 0.081568 -0.209285 0.053466 0.140293 0.143560 -0.103018 -0.501291 0.074773 0.159815 0.548984 -0.060598 0.057941 0.079332 -0.189574 0.003980 0.199917 -0.709339 0.422090 -0.434605 0.264449 0.377829 -0.294800 -0.041066 0.477712 0.090232 0.241027
xcomp 0.027157 -0.053216 0.054949 0.163853 0.370601 -0.134757 0.174340 -0.010447 0.091616 -0.046715 -0.129800 -0.038834 -0.149093 -0.188038 -0.152083 0.252016 0.137964 0.100143 -0.289229 -0.354597 -0.037585 0.207535 -0.098731 -0.235037 -0.029948 0.076213 -0.069069 0.023060 -0.086749 0.084623 -0.080905 -0.196251 0.003004 0.338940 0.393812 -0.065061 -0.021718 -0.112603 0.431926 0.102220 -0.080354 0.345042 -0.096950 0.174702 -0.233085 -0.241062 -0.008772 0.067028 -0.124801 0.101601
parataxis 0.138438 -0.082098 -0.032666 0.016496 -0.098123 -0.195841 0.072785 0.106804 -0.050138 0.372950 -0.031716 0.147894 -0.185290 -0.297423 0.286354 -0.135185 0.155612 0.049180 0.052536 -0.033721 0.369380 0.014552 -0.196537 -0.415512 -0.092526 -0.117161 0.054054 0.220641 0.212110 0.319986 0.064880 -0.101597 -0.093386 0.097763 0.178897 -0.017225 -0.028737 0.117270 0.054813 -0.098442 0.013191 0.052403 0.106438 -0.025753 -0.233232 -0.184689 0.000012 0.021968 0.017267 -0.151604
prt -0.110902 -0.052380 -0.044261 0.244107 0.171922 -0.212776 0.008384 0.003916 0.328794 0.034926 -0.298580 -0.186052 -0.147458 -0.254527 0.005186 0.199002 0.160636 0.291738 -0.236636 -0.323971 -0.015907 0.020435 -0.079967 -0.322771 -0.003371 0.180307 -0.039216 0.213948 -0.056854 0.056816 0.034404 -0.052457 0.176806 0.202706 0.325231 -0.078173 0.194869 -0.068239 0.220472 -0.062233 -0.182419 0.194493 -0.093054 0.117717 -0.155047 0.032971 0.209706 0.055743 0.047797 -0.176735
csubj 0.155303 0.385594 0.089891 -0.078569 0.185529 -0.083170 0.265286 0.217933 -0.001150 0.128503 -0.095851 -0.030929 -0.324268 -0.261674 -0.016473 0.340704 0.130344 -0.020438 -0.312326 -0.057619 -0.145269 0.196449 -0.121224 -0.041001 -0.120646 0.025587 0.036145 0.004393 -0.233852 0.106719 -0.221867 0.021176 -0.116116 0.578207 0.318382 0.008272 -0.196649 0.039953 0.474426 0.276236 0.051527 0.436782 -0.091093 0.028120 -0.342590 -0.308566 -0.103442 -0.075833 0.040841 0.079628
iobj -0.300852 0.137075 -0.311762 0.005274 0.339491 -0.029691 0.509653 -0.215328 -0.427554 0.163237 0.140168 0.351192 -0.173916 0.063181 -0.304415 -0.340145 0.459881 0.484451 -0.553445 -0.100588 0.421623 0.315264 -0.124034 -0.260614 0.140928 -0.025492 0.174628 0.251353 -0.001053 -0.295470 -0.071211 -0.153256 0.116770 0.334536 -0.003138 -0.282564 -0.223536 0.234763 0.390898 0.356710 -0.284354 0.435393 -0.189834 0.029082 0.086201 -0.251314 -0.114433 0.244936 0.122895 0.212299
dep 0.117008 -0.052163 0.044812 0.164689 0.121506 -0.175917 0.031800 0.036357 0.048894 0.195416 -0.143155 -0.010320 -0.060482 -0.163274 0.053132 0.043790 0.131450 0.100960 -0.117742 -0.134065 0.146050 0.036175 -0.125441 -0.237013 -0.038303 0.024608 0.019112 0.098316 0.024643 0.122650 0.032952 -0.123412 0.068084 0.161379 0.212184 -0.041378 -0.011367 0.043628 0.141150 0.035734 0.015946 0.126651 0.034714 0.085012 -0.208073 -0.133035 0.096935 -0.002767 0.027447 -0.097784
infmod -0.126912 0.094309 -0.085947 -0.108627 0.014831 -0.033225 0.115970 -0.064272 -0.211384 0.021031 0.050088 0.108300 -0.140061 -0.008202 -0.067138 -0.116171 0.112539 0.109230 -0.177481 -0.052943 0.149059 0.070558 -0.070942 -0.115714 -0.017766 -0.046248 0.016890 0.117443 0.050953 -0.038255 -0.012047 -0.100144 -0.162716 0.254440 0.099179 0.000488 -0.091979 -0.014950 0.137483 0.036230 -0.200110 0.068964 -0.028001 0.009800 0.058452 -0.117862 -0.129658 0.050556 0.058003 0.159614
csubjpass 0.018197 0.001875 0.013415 0.006244 0.001138 -0.011320 0.001132 0.006885 0.007293 0.022675 -0.000637 0.015182 -0.002806 -0.004139 -0.006534 -0.004144 0.005228 -0.004384 -0.003685 -0.006006 0.005980 0.014114 -0.001043 -0.011492 -0.004135 -0.018399 -0.003245 0.008902 -0.004540 0.002220 -0.003764 -0.015687 0.001261 0.014390 0.007277 0.001202 -0.026577 0.013706 0.006529 0.002523 0.012423 0.017936 0.003464 -0.003900 -0.025851 -0.005809 -0.011509 -0.005294 0.003568 -0.000792
