16 50
NOUN -0.111747 -0.222273 0.067394 0.013461 -0.062473 -0.110793 0.027642 0.003136 -0.031451 0.155926 -0.060543 0.143867 0.179593 -0.024790 0.033584 -0.283720 0.072205 -0.002650 0.007618 0.059344 0.041626 0.046097 0.037875 0.170413 -0.075345 -0.001705 0.015323 -0.046922 -0.080858 0.127848 0.291092 -0.079078 -0.121374 -0.317704 0.509435 0.124467 0.267797 0.217533 -0.049303 -0.000146 -0.089198 0.054094 0.226513 0.148727 0.092427 0.263691 0.061809 0.191377 0.057129 -0.035911
ADP -0.171776 0.218325 -0.078596 0.006887 0.265007 -0.052680 -0.317210 0.298562 -0.096096 0.156609 -0.115430 0.141230 0.013660 0.135478 0.186617 0.193561 0.082320 -0.049029 0.091438 0.079503 -0.042769 -0.132055 0.042672 -0.040004 -0.047050 0.303894 -0.102954 0.013504 -0.194996 0.217970 -0.066150 -0.025015 -0.049574 -0.175950 0.291331 0.004266 0.190706 0.155597 0.176690 -0.038660 -0.131064 -0.012357 -0.038360 -0.093979 -0.023272 0.026966 -0.114044 0.306941 0.031758 -0.300824
DET -0.627594 -0.029714 0.131567 -0.193314 -0.018127 0.088656 -0.017483 -0.034896 -0.051999 0.135809 -0.106318 0.108561 -0.081350 0.095472 0.122598 0.069036 0.007028 0.222715 -0.049761 0.076755 -0.109086 0.314858 -0.044383 -0.380505 -0.111968 0.127297 -0.054323 -0.036623 0.001656 0.054032 -0.095798 0.170408 -0.090284 -0.157532 0.290923 0.132406 -0.002326 0.213875 0.357296 -0.237084 -0.127558 0.098995 0.059644 0.124267 -0.006842 0.013116 0.265482 0.020539 -0.061743 -0.043133
PUNCT -0.210314 0.237955 0.285332 0.156172 0.111661 -0.218706 0.144520 0.272802 0.097757 0.264599 -0.202275 0.012324 0.058465 -0.001920 0.117416 0.142039 0.128547 -0.023430 0.098563 -0.023493 -0.147441 0.011539 -0.038399 -0.169464 -0.160208 0.301275 -0.274912 0.092480 -0.163480 0.236583 -0.064850 0.002344 0.254386 -0.248149 0.096975 -0.010261 0.006931 0.106821 0.133148 -0.084802 -0.132041 0.058962 0.047823 0.018277 -0.068182 -0.120657 0.277673 -0.040904 0.099367 0.066026
VERB -0.486603 0.200674 0.134282 0.008285 0.102942 -0.006140 -0.073655 0.024015 -0.053827 0.009266 -0.121196 0.215562 0.084204 0.011711 0.089389 -0.316759 0.066932 -0.216284 0.095722 0.065753 -0.022041 0.106732 -0.295260 -0.134226 0.070749 0.124669 -0.032843 0.269211 -0.153880 0.177569 0.172392 0.043985 -0.141404 0.067204 0.079994 -0.009806 0.112218 0.080445 -0.227331 0.359066 0.235615 -0.081829 0.119644 0.282560 0.172601 0.030380 -0.114164 -0.062805 -0.037650 -0.201484
PROPN -0.148530 -0.393878 0.159168 -0.175580 -0.270478 0.015088 0.274451 -0.137493 0.091188 0.231671 0.134404 0.096536 0.281160 -0.255212 -0.123417 -0.043273 -0.074362 -0.064828 0.081414 -0.208263 0.071789 -0.386175 0.228341 -0.042494 0.023980 0.370689 0.000626 0.056004 -0.271616 0.179595 0.031108 0.028581 0.381514 -0.024687 0.102355 -0.113490 0.057617 0.057036 0.017499 -0.133491 -0.111352 -0.128575 0.115697 0.168748 -0.478470 -0.192916 0.185382 0.069601 0.217972 -0.166833
ADJ 0.066172 -0.367955 0.027902 -0.043714 0.093570 -0.143172 0.012425 -0.077770 -0.119839 -0.019897 -0.278913 0.176249 -0.077068 0.341698 0.214293 0.036665 0.038043 0.089857 0.112849 0.123415 -0.111362 0.196886 0.022809 -0.247869 -0.072498 0.272327 -0.107559 0.006008 -0.129892 0.157699 -0.055402 0.097946 -0.094924 -0.197583 0.546656 0.072260 0.064457 0.211695 0.173647 0.146460 0.103158 0.122313 -0.088698 0.058265 0.122835 0.092690 -0.058704 -0.039475 0.128702 -0.351689
PRON 0.038945 -0.141959 0.151032 -0.080438 -0.144043 0.187203 -0.142482 -0.152463 -0.109871 -0.070088 -0.014703 0.038040 -0.014053 0.095013 -0.081648 -0.024741 0.152086 -0.030596 0.165981 -0.035360 -0.018075 0.302037 -0.272560 -0.059439 -0.286699 -0.107746 0.260437 -0.109938 0.056318 -0.129274 -0.044475 0.037299 -0.094505 -0.263446 -0.059491 0.383065 0.314732 0.129800 0.126709 0.135155 0.235510 -0.161248 -0.192992 0.157438 -0.067122 0.498617 -0.083006 -0.081132 0.283335 -0.048038
CONJ -0.192526 0.027192 0.170668 0.001763 0.120307 -0.184821 -0.118760 0.088208 0.049637 0.292396 -0.218052 0.252891 0.132440 0.143543 0.174967 -0.181549 0.229431 0.143169 0.091757 0.044291 -0.169011 0.307906 -0.073655 -0.310977 -0.022888 0.269741 -0.194247 -0.125748 0.032050 0.334928 0.117829 -0.187849 -0.268907 -0.125371 0.023636 -0.215320 -0.004067 -0.161006 0.161486 -0.214055 0.063212 -0.212350 -0.056419 -0.061737 -0.201893 0.007846 -0.030045 0.372135 -0.150964 -0.316820
ADV -0.008050 0.024698 -0.046104 0.003770 -0.090149 0.056356 0.028949 -0.077307 -0.089140 -0.120157 0.054071 0.070242 -0.038971 0.101057 -0.111527 -0.029499 0.124467 0.044583 0.270572 -0.148113 -0.053617 0.106644 -0.045306 0.023250 -0.112710 -0.140322 0.039575 -0.035327 0.036674 -0.029572 0.139373 0.107779 -0.286965 -0.221926 0.219893 0.167184 -0.022339 0.228236 0.463074 0.062097 0.246905 -0.229021 -0.247905 0.111195 0.121674 0.289769 0.065712 -0.260719 0.209629 -0.266944
NUM -0.190016 -0.371435 0.368198 -0.200442 0.061130 -0.099679 0.150854 -0.092182 -0.214221 0.242384 -0.194346 0.491619 0.302950 0.045673 0.559610 -0.123377 0.454318 0.077421 -0.092370 0.307454 0.018792 0.127976 -0.178387 -0.094552 -0.031761 0.331465 0.193978 0.079198 -0.123188 0.020111 -0.160132 -0.123686 0.438240 -0.126958 0.464090 0.001850 0.111785 0.094727 -0.149521 -0.117752 -0.152085 0.250293 0.121694 -0.118992 -0.016587 -0.177297 0.203353 0.055247 0.166187 0.076443
SCONJ 0.109482 0.110750 -0.022319 -0.002356 0.103061 0.122330 -0.289434 0.030040 0.023213 -0.099834 -0.064365 0.146225 0.162711 0.211294 -0.158329 -0.085808 0.431787 -0.131035 0.260612 0.141123 0.125436 0.275303 -0.307877 -0.031048 -0.099994 -0.050689 0.056014 -0.187977 0.004987 0.100879 0.012977 0.172502 -0.009217 -0.363939 0.174228 0.066073 0.172651 0.161134 0.535224 -0.146885 0.289943 -0.419117 -0.337782 0.000928 -0.135763 0.415311 0.167457 0.073133 0.421218 -0.240758
AUX -0.055017 0.022271 0.136833 -0.096010 -0.002606 0.294420 -0.267413 -0.107731 -0.047211 -0.089817 0.004388 0.017967 -0.048694 0.095461 -0.106812 0.097625 0.203065 -0.079214 0.206697 -0.025124 0.046771 0.264445 -0.413760 -0.022353 -0.166051 -0.145836 0.215500 -0.043279 0.011456 -0.169019 -0.090657 0.070024 -0.019020 -0.299274 -0.071041 0.480553 0.416562 0.157234 0.107664 0.100916 0.162669 -0.154381 -0.185885 0.124212 -0.090797 0.474423 -0.020639 -0.019649 0.306869 0.012121
X -0.054376 -0.154005 0.110801 0.033581 -0.374991 -0.496908 0.441383 0.511861 -0.712391 0.133629 -0.135468 0.183220 0.219018 -0.142117 0.501338 -0.463789 0.239042 -0.199625 -0.091087 0.298878 -0.315813 -0.271665 0.082771 0.207243 -0.652205 0.452002 0.417734 0.343480 -0.081233 0.086149 -0.108985 -0.216615 0.458774 0.029312 0.087615 -0.795906 -0.649932 0.095088 0.529594 -0.043232 0.249158 -0.374310 -0.188693 -0.311122 0.473706 -0.113617 0.329367 -0.585042 0.219816 0.141644
SYM 0.119004 -0.125686 -0.076982 -0.282767 0.276627 -0.348485 0.356429 0.202634 -0.645557 0.189770 -0.241014 0.513572 0.019868 0.075318 1.046940 -0.130992 0.768133 0.260646 0.141478 0.291347 -0.345015 0.008940 -0.592462 0.495005 0.143761 0.172010 0.149327 0.599624 0.007232 -0.235709 -0.026836 -0.829041 0.411432 -0.487879 0.688064 -0.045884 -0.095177 -0.015495 0.184515 -0.336481 -0.301118 0.050857 -0.175094 -0.798992 0.393617 -0.357747 0.635107 -0.162051 0.133787 0.145443
PART -0.024180 0.044746 -0.004543 -0.028231 0.024343 0.001218 -0.009125 -0.000243 -0.027289 -0.020827 0.019772 0.024535 0.001531 0.005445 0.022873 -0.010940 0.011668 -0.015810 -0.002817 0.019764 -0.005030 -0.031317 -0.045204 -0.005573 0.027857 0.014113 0.036732 0.028696 0.003039 -0.025776 -0.034027 0.008937 0.045768 0.029327 -0.005538 -0.012151 -0.006149 -0.008177 0.011445 -0.006278 0.015233 -0.035731 -0.006121 -0.035413 0.012381 0.004939 0.014023 0.018648 0.019541 0.008207
