32 50
case -0.097157 0.202121 0.110838 -0.136179 -0.026921 -0.128464 -0.050622 0.056427 -0.265364 0.337755 -0.038485 0.046663 0.055284 -0.190007 0.074118 0.033233 -0.327867 0.024814 0.189746 -0.106990 0.276033 0.105339 -0.262594 -0.051351 0.086348 -0.012309 0.073200 -0.153585 -0.049259 -0.176367 0.079917 -0.134272 -0.018292 -0.220095 -0.064447 -0.055042 -0.177796 0.131669 0.031139 0.239433 0.313476 -0.180084 -0.121236 -0.177628 0.107878 -0.189914 0.089939 -0.031997 0.093063 -0.011578
nmod -0.250700 -0.090797 -0.016275 -0.074009 -0.305703 -0.222067 -0.040055 0.433889 0.004654 0.070963 -0.223643 -0.098540 -0.185802 -0.109007 0.119521 0.097788 0.056029 0.284648 0.100785 0.157181 0.011729 -0.109115 -0.142135 0.219435 0.055866 -0.023149 -0.070340 0.152697 0.100480 0.052075 0.107217 -0.195725 -0.194164 -0.131698 0.049373 -0.092576 -0.068314 -0.021109 0.183039 0.039371 0.019432 0.074372 0.073852 0.041878 0.144819 -0.272097 -0.185965 0.243404 -0.059172 0.240728
det -0.311474 0.081282 0.122322 -0.214447 -0.068013 -0.053177 -0.047656 0.063038 -0.333137 0.014149 -0.276163 -0.039497 0.141148 -0.229638 -0.130575 0.077888 -0.000612 0.169127 0.163578 0.123242 -0.120690 -0.031281 -0.035389 0.085890 0.137143 -0.025552 0.368423 -0.065180 -0.011965 0.122560 -0.286380 -0.150951 0.174330 0.105018 0.061148 0.104711 -0.012571 0.069176 0.002451 0.071402 0.060005 0.242225 0.094099 0.242561 0.027273 -0.033795 0.080445 -0.011180 -0.086462 -0.098282
punct -0.099886 0.151371 -0.026252 -0.190083 -0.072434 -0.069874 0.119799 -0.211011 -0.091242 0.015836 -0.091296 -0.032498 -0.107240 -0.140184 0.007688 0.043323 0.053009 0.084852 0.074331 -0.166741 -0.045212 -0.055591 -0.015683 0.257510 -0.025661 -0.083882 0.054420 0.000127 -0.131542 -0.329463 -0.001407 -0.078353 0.107991 -0.180139 0.074350 -0.042076 -0.038428 0.039888 -0.055631 0.249859 -0.004345 0.033544 0.272532 -0.063233 -0.091210 -0.207442 -0.259433 -0.223482 -0.334092 -0.197979
amod -0.246980 -0.135640 -0.026343 -0.099934 0.144841 -0.278244 -0.116408 0.093580 -0.256676 0.360964 0.058877 0.002328 -0.006432 -0.257193 0.035869 0.143614 -0.012023 0.123169 0.012542 0.182586 -0.077949 0.033043 -0.122829 -0.041808 0.124087 0.132410 -0.042933 -0.155576 0.108865 0.069732 0.119873 -0.133432 -0.096336 -0.150038 -0.089877 -0.135463 0.033314 -0.013066 0.110160 -0.028761 0.036919 0.039246 0.030574 -0.088176 -0.030339 -0.027627 -0.091428 0.079809 0.055907 -0.148904
conj -0.196455 -0.289909 0.207912 -0.382265 -0.219066 -0.245969 0.372236 -0.204393 0.034228 0.296677 -0.143444 -0.179592 0.064501 0.020879 -0.056779 -0.044548 0.222357 -0.167366 -0.174443 -0.177376 -0.549426 0.106476 0.134433 0.320314 0.005073 -0.230813 -0.473737 -0.028201 -0.067841 -0.205626 0.187951 -0.120578 -0.117067 -0.014325 -0.060816 0.051503 0.054872 -0.342978 0.015083 -0.180212 0.045558 -0.268773 0.010030 -0.045123 -0.054716 0.102094 -0.018348 -0.139560 0.264025 0.038450
root -0.147134 -0.201980 -0.105141 -0.327781 0.097414 0.703712 0.215197 0.205207 -0.414834 -0.177427 -0.417651 0.053986 0.150478 -0.024123 -0.238163 -0.112477 -0.157360 0.035084 -0.327197 0.442440 -0.136353 -0.053584 0.279413 0.361528 0.022490 0.129700 -0.392854 -0.165499 -0.067510 -0.253717 -0.161910 -0.418746 -0.032315 -0.053279 -0.010398 -0.273107 -0.099412 0.375595 0.109394 0.030355 0.242590 -0.056334 -0.533456 -0.240617 -0.041014 -0.036862 -0.201698 0.170505 0.035058 -0.161311
nsubj 0.275213 -0.146822 -0.144790 -0.082395 -0.457458 -0.202674 -0.040549 -0.055411 -0.024176 -0.075845 0.238521 0.011380 -0.372815 -0.094920 -0.284820 0.067285 0.089292 -0.022091 0.066716 -0.066557 0.282503 -0.095855 -0.074171 -0.134326 0.216148 -0.121644 0.224768 -0.065529 0.150368 0.066284 -0.085087 -0.149395 0.086217 0.187451 -0.116149 -0.103273 -0.282750 0.147012 0.068516 0.220488 -0.035308 -0.646041 0.379974 -0.251196 0.012451 0.347841 -0.445187 0.272105 0.008863 0.312928
dobj 0.240537 -0.049204 0.215285 -0.096827 -0.003320 -0.136138 -0.180301 0.227592 0.073914 -0.218076 -0.081964 -0.146400 -0.201912 -0.393103 0.051513 -0.203272 0.149842 -0.174953 0.088880 0.072196 -0.022938 -0.360409 -0.230860 0.045195 0.140286 0.013442 -0.054108 0.351914 0.083817 0.042394 0.080512 0.035052 0.085337 -0.062668 0.213204 -0.057310 -0.189470 0.318328 -0.169125 0.332619 0.096288 -0.302295 0.222958 0.118700 -0.373529 0.155601 -0.114542 -0.093037 0.221444 0.291595
cc 0.552830 0.025384 -0.329605 0.094343 0.112024 -0.194954 -0.182483 -0.215296 -0.292283 -0.228604 -0.051508 0.317511 0.005326 -0.032575 0.198257 0.158394 0.171504 -0.045681 0.112214 -0.209603 -0.300443 0.147833 0.266648 0.137327 0.045620 -0.028356 -0.176526 -0.343089 -0.035610 0.116388 0.126356 -0.197854 -0.073333 -0.101778 0.302599 0.053782 0.275341 0.129519 -0.072652 0.229970 0.053058 0.358884 0.175651 -0.224768 0.352472 -0.308342 -0.182921 -0.038104 0.025509 -0.101875
mark 0.227417 0.169191 0.085587 -0.098120 -0.101414 0.406296 -0.484942 -0.096301 -0.270394 -0.087507 -0.108227 0.300875 0.084828 -0.024324 0.077601 -0.413648 -0.384304 -0.116165 -0.171538 -0.011174 -0.189542 -0.488357 0.255586 -0.302608 0.074158 -0.035015 0.037290 0.184297 -0.117501 0.227208 -0.157590 0.094212 0.043897 -0.076949 -0.012196 -0.349125 -0.320142 0.005200 0.077594 0.077367 0.179959 -0.170358 0.045276 0.136017 -0.231370 0.340972 -0.384579 0.369046 0.087342 -0.103369
advmod 0.039557 -0.051923 -0.170179 -0.120196 -0.033777 0.194517 -0.239150 -0.052858 -0.212588 -0.038524 -0.076843 0.075670 -0.076744 -0.083059 -0.020134 0.036108 -0.136360 0.047953 0.035990 -0.026915 -0.268752 -0.209500 0.040974 -0.110664 0.274940 -0.072237 0.186495 0.040640 0.095591 0.159185 0.010017 0.104175 0.059313 0.150554 -0.044411 0.094187 -0.094892 0.101368 -0.004558 -0.084373 0.104899 -0.213434 -0.090639 0.025042 -0.149443 0.303619 -0.067894 0.153303 0.241554 0.117272
appos -0.346729 0.257053 0.514159 0.009509 -0.451486 -0.326954 -0.120543 0.172426 0.302479 0.110860 -0.090820 0.102531 0.115449 0.047157 -0.166303 -0.019726 -0.029020 0.139964 0.030704 -0.207933 0.033671 -0.032155 -0.141688 0.625625 0.166745 -0.267642 -0.333723 -0.519756 -0.065891 -0.223578 0.026151 -0.326018 0.113672 -0.036105 -0.129438 0.246165 0.035069 -0.036907 -0.115213 -0.259564 -0.103950 -0.033983 -0.200462 -0.223019 0.159540 -0.188967 -0.147429 0.022776 -0.142049 0.193153
iobj -0.089145 -0.125906 -0.082567 0.020864 0.270017 -0.144490 -0.363437 0.080333 -0.194391 -0.218120 -0.000924 -0.019296 -0.067272 -0.378335 -0.084758 -0.014545 0.012728 -0.179563 0.078854 0.067625 -0.181172 -0.330982 0.008975 -0.166244 0.260347 0.225259 0.081161 0.059407 0.058079 0.154611 -0.129274 0.073728 0.169005 0.116660 0.173951 -0.097257 -0.226792 0.312823 -0.118068 0.134106 0.013314 -0.178660 0.279888 0.119457 -0.571035 0.391742 -0.240968 0.151499 0.200673 -0.210475
nummod -0.359230 0.134315 -0.228770 -0.086541 -0.050377 -0.122667 -0.165605 0.314190 -0.247549 0.293379 0.037420 0.051018 0.087275 -0.173693 0.067484 0.182762 0.219302 0.405589 0.029637 0.071644 -0.315580 0.152905 -0.106300 0.034905 -0.025990 0.021186 0.210211 -0.023685 0.264295 -0.233892 0.220656 -0.020634 -0.021062 0.049295 -0.178425 -0.048574 0.079545 0.127701 0.077248 0.021004 0.083780 -0.077923 -0.183936 -0.196941 -0.192362 -0.133327 -0.180699 0.031829 -0.293785 -0.123038
name -0.195963 0.312471 0.546131 0.121700 -0.298365 -0.193792 -0.132777 -0.286487 0.366293 0.181198 -0.211106 0.157456 -0.071902 0.008263 -0.176918 0.197384 0.098411 0.291435 -0.116753 -0.585640 -0.126289 0.071143 -0.006824 0.780468 0.124284 -0.160020 -0.129016 -0.557876 -0.221011 -0.362672 -0.140131 -0.377072 0.028772 -0.033571 -0.075245 0.092918 0.126425 0.155613 -0.066802 -0.193930 -0.347428 0.125044 0.136861 -0.200648 -0.236209 -0.044247 -0.557528 0.237290 -0.562610 -0.547757
cop 0.026662 0.075313 -0.206895 0.055579 0.134423 -0.106084 -0.100943 0.177568 0.068585 -0.168183 -0.078416 -0.024792 -0.548239 -0.757203 -0.007686 -0.028568 0.080078 0.094119 -0.155773 -0.122800 -0.110370 -0.392274 -0.446889 0.207073 0.329854 -0.110984 -0.075089 -0.079942 -0.144319 -0.146310 -0.090561 -0.195536 -0.007910 0.196674 -0.371875 0.139413 -0.231094 0.485784 -0.550446 0.342057 -0.187984 -0.078307 -0.130000 -0.213812 -0.401234 0.346338 -0.025831 -0.006285 0.288843 -0.026160
acl -0.379377 0.009474 -0.191934 -0.204951 -0.213621 -0.318072 0.109548 0.097448 -0.262654 0.071215 0.169968 -0.097311 0.160222 0.108219 -0.108376 0.090605 0.008312 0.114791 0.272621 0.056400 0.154326 -0.057390 0.140422 -0.109659 -0.271464 0.114143 -0.056452 -0.071595 0.095098 0.014392 -0.010259 -0.004287 0.019830 0.040496 0.223786 0.044494 -0.024649 0.213247 -0.043953 0.092325 0.118308 -0.047624 0.087420 0.021373 0.123914 -0.204028 -0.027301 0.377014 0.287050 0.056575
acl:relcl -0.228436 -0.183355 -0.118162 -0.357320 -0.014208 -0.010607 0.391445 0.174296 -0.282424 -0.176284 -0.075806 -0.352263 0.435654 0.227461 -0.389854 -0.079835 -0.039722 -0.090763 0.168113 0.105857 0.231357 -0.123944 0.360616 0.013167 -0.308252 0.427078 -0.323203 -0.097096 0.009978 0.038852 -0.239441 -0.085336 0.104192 0.184765 0.410846 -0.042230 -0.039130 0.461672 -0.139764 0.037012 0.167483 -0.395829 -0.249870 -0.323641 -0.201941 0.031962 0.035865 0.274424 0.202894 -0.158993
advcl -0.013562 -0.158398 -0.368495 -0.419420 -0.020387 -0.015947 0.318158 0.091465 -0.292508 -0.081730 0.171603 -0.417001 0.357030 0.222215 -0.381515 -0.123251 -0.133915 0.217738 0.137920 0.097411 -0.035488 -0.438986 0.409418 -0.238461 -0.238322 0.257413 -0.210517 -0.037131 0.061461 0.143617 -0.004437 0.203528 0.307992 0.283757 0.397566 0.043863 -0.028824 0.439397 -0.176127 0.026912 0.331585 -0.460647 -0.286686 -0.186996 -0.100840 0.141935 0.093712 0.507216 0.391094 -0.195760
aux 0.206537 0.154565 -0.445660 -0.043022 0.102703 0.255818 0.088333 -0.018270 -0.135683 -0.010554 -0.104532 -0.197587 0.011062 -0.009658 -0.004660 -0.014753 -0.335973 0.379351 0.164430 -0.355148 -0.158628 -0.390788 0.058866 -0.245921 0.181596 0.033468 0.262459 0.169209 -0.080845 0.317838 -0.180711 0.228167 -0.024610 0.369951 -0.119699 0.036755 -0.200908 0.256619 -0.193788 0.098228 0.088649 -0.289186 -0.122152 -0.090422 -0.294830 0.450447 -0.053897 0.508329 0.227740 -0.293542
mwe 0.094657 -0.193293 0.189272 -0.193510 0.133122 -0.047270 -0.193081 -0.146919 0.214967 0.011046 -0.189263 -0.049606 -0.027647 0.144333 -0.246189 -0.075785 -0.095867 0.113436 -0.173127 0.253886 -0.126083 -0.266653 0.137610 -0.098697 -0.122711 0.058247 -0.007609 0.054135 0.138202 0.029841 0.180932 0.413336 0.335695 -0.109505 0.385888 -0.068115 -0.123688 0.322583 -0.144822 0.161028 0.406875 -0.311353 -0.022443 0.082684 -0.165274 0.074311 0.121683 0.249744 0.409153 -0.088782
auxpass -0.222630 -0.410602 0.024278 0.177581 -0.194789 -0.090009 -0.525676 0.453192 0.457850 0.028730 -0.924393 0.280376 -0.164300 0.019325 0.082022 -0.052282 0.176914 0.232257 0.143274 0.088313 0.400481 0.213837 -0.454029 -0.411832 -0.139216 -0.159088 0.644518 -0.151941 0.044952 0.382996 -0.484723 0.459937 0.420942 0.018540 0.081358 -0.210617 -0.005607 -0.491357 -0.620534 0.293943 0.160427 -0.256330 0.631946 -0.375999 -0.332532 0.044203 -0.395902 -0.427704 0.543114 -0.859336
neg 0.411732 -0.172621 -0.086794 -0.183418 0.065489 0.135778 -0.197471 -0.155116 -0.154292 -0.103282 -0.069599 -0.008819 0.139492 -0.056852 -0.117377 -0.198802 -0.073576 -0.045813 0.035542 -0.123172 -0.357287 -0.416528 0.186509 -0.209234 0.198077 0.117157 0.020122 0.008909 0.076565 0.488194 -0.188028 0.165313 0.145310 0.276187 0.000007 -0.057543 -0.070822 0.105923 -0.203968 -0.064183 0.079110 -0.359639 -0.052923 -0.130951 -0.381570 0.605533 -0.126479 0.177686 0.348381 -0.237273
parataxis -0.062309 -0.154897 -0.064606 -0.206813 0.035083 0.182611 -0.106367 0.188921 -0.225648 -0.121220 -0.096143 0.081618 0.309864 0.172159 -0.273458 -0.055239 -0.131869 0.011622 -0.015091 0.182766 -0.187665 -0.159811 0.287320 0.222526 0.186667 0.174134 -0.379930 -0.319470 0.116056 0.105317 -0.027143 -0.140728 0.054062 0.065942 0.005523 -0.039835 -0.043534 0.251379 -0.032163 -0.148647 0.170164 -0.262986 -0.477458 -0.336697 -0.096327 0.149889 -0.119422 0.184609 0.152817 0.034544
ccomp 0.196246 -0.306268 -0.222259 -0.292738 0.146648 0.243419 0.163150 0.100622 -0.293750 -0.241937 -0.211453 -0.200589 0.257167 0.031117 -0.374218 -0.088126 -0.078361 0.011750 0.062193 0.138495 -0.161400 -0.281051 0.279585 0.018464 0.180937 0.264977 -0.167844 -0.141651 0.073292 0.297255 -0.260303 -0.108594 0.103226 0.309698 0.121575 -0.062788 -0.093120 0.378832 -0.120246 0.011044 0.185548 -0.430050 -0.247705 -0.307300 -0.235767 0.431908 -0.086626 0.275399 0.300686 -0.156749
xcomp 0.249246 0.082239 -0.213182 -0.247115 0.040617 -0.213396 -0.242415 -0.097867 -0.414887 0.121910 0.074966 -0.005804 0.147073 -0.198051 0.129940 -0.147932 -0.122495 0.051640 0.176247 -0.257793 -0.441102 -0.486910 0.157997 -0.231078 0.138628 0.178485 -0.096689 0.163646 0.061594 0.525847 -0.024295 0.083201 -0.180582 0.134173 -0.022220 -0.156547 -0.152482 0.208495 -0.125030 0.121020 0.070612 -0.170851 0.008805 -0.021559 -0.364257 0.451820 -0.158278 0.501730 0.400320 -0.112918
dep -0.111678 0.441151 0.221543 -0.020598 -0.234159 0.058841 -0.458676 0.494793 0.269638 -0.045371 -0.043106 0.123119 0.402812 0.230147 -0.096605 -0.087268 0.331534 0.386301 0.088611 -0.132470 -0.377568 0.030597 -0.072107 0.502623 0.120494 -0.175480 0.106970 -0.239201 0.377554 -0.310868 0.295972 0.138851 0.417676 0.217410 -0.067356 0.217031 0.272483 0.060070 -0.082781 -0.271180 0.065122 -0.363230 -0.471475 -0.520429 -0.256982 -0.101880 -0.282680 -0.378823 -0.754899 0.095578
nsubjpass -0.317072 0.179822 -0.754978 0.154801 -0.028190 0.003726 -0.280474 0.308443 0.358273 0.043814 -1.027450 -0.101492 -0.640679 0.193746 0.110366 0.365406 -1.110204 0.215163 0.152779 -0.663311 0.266122 -0.287853 -0.251982 0.156772 0.704008 -0.367069 0.399245 -0.207462 -0.295469 0.131982 0.104589 0.342142 0.106383 0.108743 0.576795 0.256365 -0.442400 -0.120138 -0.143224 0.007137 0.344462 -0.472842 0.147282 -0.604214 -0.037929 -0.082930 -0.064699 0.296842 0.562276 -0.045415
csubj 0.277141 -0.359001 -0.363501 -0.353030 -0.026660 0.144591 0.050525 -0.075645 -0.556902 -0.038968 0.082368 -0.038881 0.219321 0.050425 -0.308358 -0.036957 -0.075170 -0.001599 0.121610 0.135304 -0.176222 -0.185433 0.289006 -0.312870 0.168142 0.154616 0.044562 -0.110576 0.214136 0.330318 -0.119881 0.005572 0.163916 0.316363 0.029200 -0.112522 -0.130017 0.223153 0.031610 0.052011 0.298213 -0.552328 -0.106373 -0.217377 -0.075734 0.507124 -0.156610 0.338190 0.380179 -0.087950
compound 0.093102 0.498178 0.373473 0.353250 -0.270948 0.165927 -0.528030 0.241146 0.566909 -0.045366 0.219378 0.286761 0.116346 -0.255991 -0.033156 -0.580406 0.344853 0.490455 -0.214289 0.055036 -0.057805 -0.454443 -0.216886 0.056494 -0.291636 -0.211776 -0.065019 -0.413015 -0.130918 -0.149232 -0.181124 0.069568 0.398181 -0.060261 -0.697841 -0.089643 0.271597 -0.401058 -0.594612 -0.277171 -0.313839 -0.066359 -0.192128 -0.699916 -0.296771 -0.018528 -0.703102 -0.496250 -0.641240 -0.638761
csubjpass -0.001002 -0.017733 -0.022055 -0.000108 0.002792 0.012676 0.017200 0.003541 0.022137 -0.014970 -0.017558 -0.016702 -0.009462 0.021836 0.003210 0.004692 -0.005442 0.008921 -0.000384 -0.002442 0.003625 -0.004931 -0.007225 0.008589 0.009315 0.013700 0.000547 0.008335 -0.001960 -0.008153 0.015244 0.000236 -0.006126 0.002489 0.014156 -0.000120 -0.005142 -0.006638 0.022491 -0.002640 0.004200 -0.005972 0.001125 -0.011595 0.003728 0.000668 -0.012462 0.000788 -0.015573 0.008882
